digraph Tree {
node [shape=box] ;
0 [label="Title_Mr <= 0.5\ngini = 0.473\nsamples = 891\nvalue = [549, 342]"] ;
1 [label="Pclass <= 0.75\ngini = 0.421\nsamples = 372\nvalue = [112, 260]"] ;
0 -> 1 [labeldistance=2.5, labelangle=45, headlabel="True"] ;
2 [label="Title_Others <= 0.5\ngini = 0.204\nsamples = 200\nvalue = [23, 177]"] ;
1 -> 2 ;
3 [label="Fare <= 0.01\ngini = 0.104\nsamples = 181\nvalue = [10, 171]"] ;
2 -> 3 ;
4 [label="gini = 0.0\nsamples = 1\nvalue = [1, 0]"] ;
3 -> 4 ;
5 [label="Fare <= 0.056\ngini = 0.095\nsamples = 180\nvalue = [9, 171]"] ;
3 -> 5 ;
6 [label="Fare <= 0.055\ngini = 0.171\nsamples = 74\nvalue = [7, 67]"] ;
5 -> 6 ;
7 [label="Fare <= 0.051\ngini = 0.151\nsamples = 73\nvalue = [6, 67]"] ;
6 -> 7 ;
8 [label="Embarked_S <= 0.5\ngini = 0.172\nsamples = 63\nvalue = [6, 57]"] ;
7 -> 8 ;
9 [label="gini = 0.0\nsamples = 6\nvalue = [0, 6]"] ;
8 -> 9 ;
10 [label="AgeGroup_1.0 <= 0.5\ngini = 0.188\nsamples = 57\nvalue = [6, 51]"] ;
8 -> 10 ;
11 [label="Deck <= 0.312\ngini = 0.145\nsamples = 38\nvalue = [3, 35]"] ;
10 -> 11 ;
12 [label="AgeGroup_2.0 <= 0.5\ngini = 0.111\nsamples = 34\nvalue = [2, 32]"] ;
11 -> 12 ;
13 [label="gini = 0.0\nsamples = 18\nvalue = [0, 18]"] ;
12 -> 13 ;
14 [label="Fare <= 0.048\ngini = 0.219\nsamples = 16\nvalue = [2, 14]"] ;
12 -> 14 ;
15 [label="Title_Mrs <= 0.5\ngini = 0.153\nsamples = 12\nvalue = [1, 11]"] ;
14 -> 15 ;
16 [label="Fare <= 0.033\ngini = 0.32\nsamples = 5\nvalue = [1, 4]"] ;
15 -> 16 ;
17 [label="gini = 0.375\nsamples = 4\nvalue = [1, 3]"] ;
16 -> 17 ;
18 [label="gini = 0.0\nsamples = 1\nvalue = [0, 1]"] ;
16 -> 18 ;
19 [label="gini = 0.0\nsamples = 7\nvalue = [0, 7]"] ;
15 -> 19 ;
20 [label="gini = 0.375\nsamples = 4\nvalue = [1, 3]"] ;
14 -> 20 ;
21 [label="Fare <= 0.023\ngini = 0.375\nsamples = 4\nvalue = [1, 3]"] ;
11 -> 21 ;
22 [label="gini = 0.0\nsamples = 1\nvalue = [1, 0]"] ;
21 -> 22 ;
23 [label="gini = 0.0\nsamples = 3\nvalue = [0, 3]"] ;
21 -> 23 ;
24 [label="Fare <= 0.025\ngini = 0.266\nsamples = 19\nvalue = [3, 16]"] ;
10 -> 24 ;
25 [label="gini = 0.0\nsamples = 4\nvalue = [0, 4]"] ;
24 -> 25 ;
26 [label="Fare <= 0.039\ngini = 0.32\nsamples = 15\nvalue = [3, 12]"] ;
24 -> 26 ;
27 [label="Title_Mrs <= 0.5\ngini = 0.245\nsamples = 7\nvalue = [1, 6]"] ;
26 -> 27 ;
28 [label="Deck <= 0.125\ngini = 0.375\nsamples = 4\nvalue = [1, 3]"] ;
27 -> 28 ;
29 [label="gini = 0.444\nsamples = 3\nvalue = [1, 2]"] ;
28 -> 29 ;
30 [label="gini = 0.0\nsamples = 1\nvalue = [0, 1]"] ;
28 -> 30 ;
31 [label="gini = 0.0\nsamples = 3\nvalue = [0, 3]"] ;
27 -> 31 ;
32 [label="Fare <= 0.046\ngini = 0.375\nsamples = 8\nvalue = [2, 6]"] ;
26 -> 32 ;
33 [label="gini = 0.5\nsamples = 2\nvalue = [1, 1]"] ;
32 -> 33 ;
34 [label="gini = 0.278\nsamples = 6\nvalue = [1, 5]"] ;
32 -> 34 ;
35 [label="gini = 0.0\nsamples = 10\nvalue = [0, 10]"] ;
7 -> 35 ;
36 [label="gini = 0.0\nsamples = 1\nvalue = [1, 0]"] ;
6 -> 36 ;
37 [label="Fare <= 0.291\ngini = 0.037\nsamples = 106\nvalue = [2, 104]"] ;
5 -> 37 ;
38 [label="gini = 0.0\nsamples = 86\nvalue = [0, 86]"] ;
37 -> 38 ;
39 [label="Fare <= 0.298\ngini = 0.18\nsamples = 20\nvalue = [2, 18]"] ;
37 -> 39 ;
40 [label="IsAlone <= 0.5\ngini = 0.5\nsamples = 4\nvalue = [2, 2]"] ;
39 -> 40 ;
41 [label="Sex_male <= 0.5\ngini = 0.444\nsamples = 3\nvalue = [2, 1]"] ;
40 -> 41 ;
42 [label="gini = 0.0\nsamples = 2\nvalue = [2, 0]"] ;
41 -> 42 ;
43 [label="gini = 0.0\nsamples = 1\nvalue = [0, 1]"] ;
41 -> 43 ;
44 [label="gini = 0.0\nsamples = 1\nvalue = [0, 1]"] ;
40 -> 44 ;
45 [label="gini = 0.0\nsamples = 16\nvalue = [0, 16]"] ;
39 -> 45 ;
46 [label="Pclass <= 0.25\ngini = 0.432\nsamples = 19\nvalue = [13, 6]"] ;
2 -> 46 ;
47 [label="AgeGroup_3.0 <= 0.5\ngini = 0.496\nsamples = 11\nvalue = [5, 6]"] ;
46 -> 47 ;
48 [label="Sex_male <= 0.5\ngini = 0.444\nsamples = 6\nvalue = [4, 2]"] ;
47 -> 48 ;
49 [label="gini = 0.0\nsamples = 1\nvalue = [0, 1]"] ;
48 -> 49 ;
50 [label="Fare <= 0.068\ngini = 0.32\nsamples = 5\nvalue = [4, 1]"] ;
48 -> 50 ;
51 [label="Fare <= 0.056\ngini = 0.5\nsamples = 2\nvalue = [1, 1]"] ;
50 -> 51 ;
52 [label="gini = 0.0\nsamples = 1\nvalue = [1, 0]"] ;
51 -> 52 ;
53 [label="gini = 0.0\nsamples = 1\nvalue = [0, 1]"] ;
51 -> 53 ;
54 [label="gini = 0.0\nsamples = 3\nvalue = [3, 0]"] ;
50 -> 54 ;
55 [label="Deck <= 0.25\ngini = 0.32\nsamples = 5\nvalue = [1, 4]"] ;
47 -> 55 ;
56 [label="IsAlone <= 0.5\ngini = 0.5\nsamples = 2\nvalue = [1, 1]"] ;
55 -> 56 ;
57 [label="gini = 0.0\nsamples = 1\nvalue = [0, 1]"] ;
56 -> 57 ;
58 [label="gini = 0.0\nsamples = 1\nvalue = [1, 0]"] ;
56 -> 58 ;
59 [label="gini = 0.0\nsamples = 3\nvalue = [0, 3]"] ;
55 -> 59 ;
60 [label="gini = 0.0\nsamples = 8\nvalue = [8, 0]"] ;
46 -> 60 ;
61 [label="Fare <= 0.046\ngini = 0.499\nsamples = 172\nvalue = [89, 83]"] ;
1 -> 61 ;
62 [label="Embarked_S <= 0.5\ngini = 0.473\nsamples = 128\nvalue = [49, 79]"] ;
61 -> 62 ;
63 [label="AgeGroup_2.0 <= 0.5\ngini = 0.4\nsamples = 58\nvalue = [16, 42]"] ;
62 -> 63 ;
64 [label="Fare <= 0.03\ngini = 0.361\nsamples = 55\nvalue = [13, 42]"] ;
63 -> 64 ;
65 [label="Fare <= 0.027\ngini = 0.416\nsamples = 44\nvalue = [13, 31]"] ;
64 -> 65 ;
66 [label="Fare <= 0.014\ngini = 0.298\nsamples = 33\nvalue = [6, 27]"] ;
65 -> 66 ;
67 [label="gini = 0.0\nsamples = 1\nvalue = [1, 0]"] ;
66 -> 67 ;
68 [label="AgeGroup_1.0 <= 0.5\ngini = 0.264\nsamples = 32\nvalue = [5, 27]"] ;
66 -> 68 ;
69 [label="gini = 0.0\nsamples = 10\nvalue = [0, 10]"] ;
68 -> 69 ;
70 [label="IsAlone <= 0.5\ngini = 0.351\nsamples = 22\nvalue = [5, 17]"] ;
68 -> 70 ;
71 [label="gini = 0.0\nsamples = 1\nvalue = [1, 0]"] ;
70 -> 71 ;
72 [label="Fare <= 0.016\ngini = 0.308\nsamples = 21\nvalue = [4, 17]"] ;
70 -> 72 ;
73 [label="Fare <= 0.015\ngini = 0.255\nsamples = 20\nvalue = [3, 17]"] ;
72 -> 73 ;
74 [label="Title_Mrs <= 0.5\ngini = 0.32\nsamples = 15\nvalue = [3, 12]"] ;
73 -> 74 ;
75 [label="Fare <= 0.015\ngini = 0.355\nsamples = 13\nvalue = [3, 10]"] ;
74 -> 75 ;
76 [label="gini = 0.0\nsamples = 1\nvalue = [1, 0]"] ;
75 -> 76 ;
77 [label="Fare <= 0.015\ngini = 0.278\nsamples = 12\nvalue = [2, 10]"] ;
75 -> 77 ;
78 [label="gini = 0.0\nsamples = 2\nvalue = [0, 2]"] ;
77 -> 78 ;
79 [label="gini = 0.32\nsamples = 10\nvalue = [2, 8]"] ;
77 -> 79 ;
80 [label="gini = 0.0\nsamples = 2\nvalue = [0, 2]"] ;
74 -> 80 ;
81 [label="gini = 0.0\nsamples = 5\nvalue = [0, 5]"] ;
73 -> 81 ;
82 [label="gini = 0.0\nsamples = 1\nvalue = [1, 0]"] ;
72 -> 82 ;
83 [label="Title_Miss <= 0.5\ngini = 0.463\nsamples = 11\nvalue = [7, 4]"] ;
65 -> 83 ;
84 [label="AgeGroup_1.0 <= 0.5\ngini = 0.444\nsamples = 6\nvalue = [2, 4]"] ;
83 -> 84 ;
85 [label="gini = 0.0\nsamples = 3\nvalue = [0, 3]"] ;
84 -> 85 ;
86 [label="Fare <= 0.029\ngini = 0.444\nsamples = 3\nvalue = [2, 1]"] ;
84 -> 86 ;
87 [label="gini = 0.0\nsamples = 1\nvalue = [1, 0]"] ;
86 -> 87 ;
88 [label="gini = 0.5\nsamples = 2\nvalue = [1, 1]"] ;
86 -> 88 ;
89 [label="gini = 0.0\nsamples = 5\nvalue = [5, 0]"] ;
83 -> 89 ;
90 [label="gini = 0.0\nsamples = 11\nvalue = [0, 11]"] ;
64 -> 90 ;
91 [label="gini = 0.0\nsamples = 3\nvalue = [3, 0]"] ;
63 -> 91 ;
92 [label="Fare <= 0.021\ngini = 0.498\nsamples = 70\nvalue = [33, 37]"] ;
62 -> 92 ;
93 [label="Fare <= 0.016\ngini = 0.482\nsamples = 37\nvalue = [22, 15]"] ;
92 -> 93 ;
94 [label="AgeGroup_2.0 <= 0.5\ngini = 0.495\nsamples = 20\nvalue = [9, 11]"] ;
93 -> 94 ;
95 [label="Fare <= 0.015\ngini = 0.475\nsamples = 18\nvalue = [7, 11]"] ;
94 -> 95 ;
96 [label="Fare <= 0.015\ngini = 0.278\nsamples = 6\nvalue = [1, 5]"] ;
95 -> 96 ;
97 [label="gini = 0.0\nsamples = 2\nvalue = [0, 2]"] ;
96 -> 97 ;
98 [label="Fare <= 0.015\ngini = 0.375\nsamples = 4\nvalue = [1, 3]"] ;
96 -> 98 ;
99 [label="gini = 0.5\nsamples = 2\nvalue = [1, 1]"] ;
98 -> 99 ;
100 [label="gini = 0.0\nsamples = 2\nvalue = [0, 2]"] ;
98 -> 100 ;
101 [label="IsAlone <= 0.5\ngini = 0.5\nsamples = 12\nvalue = [6, 6]"] ;
95 -> 101 ;
102 [label="AgeGroup_1.0 <= 0.5\ngini = 0.444\nsamples = 3\nvalue = [1, 2]"] ;
101 -> 102 ;
103 [label="gini = 0.0\nsamples = 2\nvalue = [0, 2]"] ;
102 -> 103 ;
104 [label="gini = 0.0\nsamples = 1\nvalue = [1, 0]"] ;
102 -> 104 ;
105 [label="AgeGroup_1.0 <= 0.5\ngini = 0.494\nsamples = 9\nvalue = [5, 4]"] ;
101 -> 105 ;
106 [label="gini = 0.0\nsamples = 2\nvalue = [2, 0]"] ;
105 -> 106 ;
107 [label="Fare <= 0.015\ngini = 0.49\nsamples = 7\nvalue = [3, 4]"] ;
105 -> 107 ;
108 [label="Fare <= 0.015\ngini = 0.444\nsamples = 3\nvalue = [1, 2]"] ;
107 -> 108 ;
109 [label="gini = 0.5\nsamples = 2\nvalue = [1, 1]"] ;
108 -> 109 ;
110 [label="gini = 0.0\nsamples = 1\nvalue = [0, 1]"] ;
108 -> 110 ;
111 [label="Fare <= 0.015\ngini = 0.5\nsamples = 4\nvalue = [2, 2]"] ;
107 -> 111 ;
112 [label="gini = 0.0\nsamples = 1\nvalue = [1, 0]"] ;
111 -> 112 ;
113 [label="gini = 0.444\nsamples = 3\nvalue = [1, 2]"] ;
111 -> 113 ;
114 [label="gini = 0.0\nsamples = 2\nvalue = [2, 0]"] ;
94 -> 114 ;
115 [label="AgeGroup_1.0 <= 0.5\ngini = 0.36\nsamples = 17\nvalue = [13, 4]"] ;
93 -> 115 ;
116 [label="Fare <= 0.018\ngini = 0.49\nsamples = 7\nvalue = [3, 4]"] ;
115 -> 116 ;
117 [label="gini = 0.0\nsamples = 2\nvalue = [0, 2]"] ;
116 -> 117 ;
118 [label="IsAlone <= 0.5\ngini = 0.48\nsamples = 5\nvalue = [3, 2]"] ;
116 -> 118 ;
119 [label="gini = 0.0\nsamples = 2\nvalue = [2, 0]"] ;
118 -> 119 ;
120 [label="AgeGroup_2.0 <= 0.5\ngini = 0.444\nsamples = 3\nvalue = [1, 2]"] ;
118 -> 120 ;
121 [label="gini = 0.0\nsamples = 2\nvalue = [0, 2]"] ;
120 -> 121 ;
122 [label="gini = 0.0\nsamples = 1\nvalue = [1, 0]"] ;
120 -> 122 ;
123 [label="gini = 0.0\nsamples = 10\nvalue = [10, 0]"] ;
115 -> 123 ;
124 [label="Fare <= 0.034\ngini = 0.444\nsamples = 33\nvalue = [11, 22]"] ;
92 -> 124 ;
125 [label="AgeGroup_3.0 <= 0.5\ngini = 0.255\nsamples = 20\nvalue = [3, 17]"] ;
124 -> 125 ;
126 [label="AgeGroup_1.0 <= 0.5\ngini = 0.188\nsamples = 19\nvalue = [2, 17]"] ;
125 -> 126 ;
127 [label="gini = 0.0\nsamples = 10\nvalue = [0, 10]"] ;
126 -> 127 ;
128 [label="Fare <= 0.026\ngini = 0.346\nsamples = 9\nvalue = [2, 7]"] ;
126 -> 128 ;
129 [label="gini = 0.0\nsamples = 3\nvalue = [0, 3]"] ;
128 -> 129 ;
130 [label="Fare <= 0.03\ngini = 0.444\nsamples = 6\nvalue = [2, 4]"] ;
128 -> 130 ;
131 [label="gini = 0.0\nsamples = 1\nvalue = [1, 0]"] ;
130 -> 131 ;
132 [label="Deck <= 0.062\ngini = 0.32\nsamples = 5\nvalue = [1, 4]"] ;
130 -> 132 ;
133 [label="Fare <= 0.031\ngini = 0.375\nsamples = 4\nvalue = [1, 3]"] ;
132 -> 133 ;
134 [label="gini = 0.0\nsamples = 1\nvalue = [0, 1]"] ;
133 -> 134 ;
135 [label="gini = 0.444\nsamples = 3\nvalue = [1, 2]"] ;
133 -> 135 ;
136 [label="gini = 0.0\nsamples = 1\nvalue = [0, 1]"] ;
132 -> 136 ;
137 [label="gini = 0.0\nsamples = 1\nvalue = [1, 0]"] ;
125 -> 137 ;
138 [label="Fare <= 0.039\ngini = 0.473\nsamples = 13\nvalue = [8, 5]"] ;
124 -> 138 ;
139 [label="gini = 0.0\nsamples = 4\nvalue = [4, 0]"] ;
138 -> 139 ;
140 [label="Fare <= 0.041\ngini = 0.494\nsamples = 9\nvalue = [4, 5]"] ;
138 -> 140 ;
141 [label="gini = 0.0\nsamples = 4\nvalue = [0, 4]"] ;
140 -> 141 ;
142 [label="Fare <= 0.042\ngini = 0.32\nsamples = 5\nvalue = [4, 1]"] ;
140 -> 142 ;
143 [label="gini = 0.0\nsamples = 4\nvalue = [4, 0]"] ;
142 -> 143 ;
144 [label="gini = 0.0\nsamples = 1\nvalue = [0, 1]"] ;
142 -> 144 ;
145 [label="Fare <= 0.064\ngini = 0.165\nsamples = 44\nvalue = [40, 4]"] ;
61 -> 145 ;
146 [label="Fare <= 0.061\ngini = 0.245\nsamples = 28\nvalue = [24, 4]"] ;
145 -> 146 ;
147 [label="Fare <= 0.048\ngini = 0.08\nsamples = 24\nvalue = [23, 1]"] ;
146 -> 147 ;
148 [label="Embarked_S <= 0.5\ngini = 0.375\nsamples = 4\nvalue = [3, 1]"] ;
147 -> 148 ;
149 [label="gini = 0.0\nsamples = 1\nvalue = [0, 1]"] ;
148 -> 149 ;
150 [label="gini = 0.0\nsamples = 3\nvalue = [3, 0]"] ;
148 -> 150 ;
151 [label="gini = 0.0\nsamples = 20\nvalue = [20, 0]"] ;
147 -> 151 ;
152 [label="Sex_male <= 0.5\ngini = 0.375\nsamples = 4\nvalue = [1, 3]"] ;
146 -> 152 ;
153 [label="gini = 0.0\nsamples = 2\nvalue = [0, 2]"] ;
152 -> 153 ;
154 [label="gini = 0.5\nsamples = 2\nvalue = [1, 1]"] ;
152 -> 154 ;
155 [label="gini = 0.0\nsamples = 16\nvalue = [16, 0]"] ;
145 -> 155 ;
156 [label="Deck <= 0.312\ngini = 0.266\nsamples = 519\nvalue = [437, 82]"] ;
0 -> 156 [labeldistance=2.5, labelangle=-45, headlabel="False"] ;
157 [label="Fare <= 0.052\ngini = 0.195\nsamples = 430\nvalue = [383, 47]"] ;
156 -> 157 ;
158 [label="Fare <= 0.027\ngini = 0.175\nsamples = 381\nvalue = [344, 37]"] ;
157 -> 158 ;
159 [label="Fare <= 0.027\ngini = 0.188\nsamples = 315\nvalue = [282, 33]"] ;
158 -> 159 ;
160 [label="Fare <= 0.015\ngini = 0.183\nsamples = 314\nvalue = [282, 32]"] ;
159 -> 160 ;
161 [label="AgeGroup_1.0 <= 0.5\ngini = 0.147\nsamples = 175\nvalue = [161, 14]"] ;
160 -> 161 ;
162 [label="Fare <= 0.015\ngini = 0.036\nsamples = 55\nvalue = [54, 1]"] ;
161 -> 162 ;
163 [label="gini = 0.0\nsamples = 42\nvalue = [42, 0]"] ;
162 -> 163 ;
164 [label="Fare <= 0.015\ngini = 0.142\nsamples = 13\nvalue = [12, 1]"] ;
162 -> 164 ;
165 [label="AgeGroup_2.0 <= 0.5\ngini = 0.444\nsamples = 3\nvalue = [2, 1]"] ;
164 -> 165 ;
166 [label="gini = 0.0\nsamples = 2\nvalue = [2, 0]"] ;
165 -> 166 ;
167 [label="gini = 0.0\nsamples = 1\nvalue = [0, 1]"] ;
165 -> 167 ;
168 [label="gini = 0.0\nsamples = 10\nvalue = [10, 0]"] ;
164 -> 168 ;
169 [label="Fare <= 0.015\ngini = 0.193\nsamples = 120\nvalue = [107, 13]"] ;
161 -> 169 ;
170 [label="Fare <= 0.015\ngini = 0.247\nsamples = 83\nvalue = [71, 12]"] ;
169 -> 170 ;
171 [label="Fare <= 0.014\ngini = 0.2\nsamples = 71\nvalue = [63, 8]"] ;
170 -> 171 ;
172 [label="Pclass <= 0.75\ngini = 0.266\nsamples = 38\nvalue = [32, 6]"] ;
171 -> 172 ;
173 [label="gini = 0.0\nsamples = 6\nvalue = [6, 0]"] ;
172 -> 173 ;
174 [label="Fare <= 0.004\ngini = 0.305\nsamples = 32\nvalue = [26, 6]"] ;
172 -> 174 ;
175 [label="gini = 0.0\nsamples = 1\nvalue = [0, 1]"] ;
174 -> 175 ;
176 [label="Fare <= 0.014\ngini = 0.271\nsamples = 31\nvalue = [26, 5]"] ;
174 -> 176 ;
177 [label="gini = 0.0\nsamples = 3\nvalue = [3, 0]"] ;
176 -> 177 ;
178 [label="Fare <= 0.014\ngini = 0.293\nsamples = 28\nvalue = [23, 5]"] ;
176 -> 178 ;
179 [label="gini = 0.0\nsamples = 1\nvalue = [0, 1]"] ;
178 -> 179 ;
180 [label="Fare <= 0.014\ngini = 0.252\nsamples = 27\nvalue = [23, 4]"] ;
178 -> 180 ;
181 [label="gini = 0.0\nsamples = 7\nvalue = [7, 0]"] ;
180 -> 181 ;
182 [label="Fare <= 0.014\ngini = 0.32\nsamples = 20\nvalue = [16, 4]"] ;
180 -> 182 ;
183 [label="gini = 0.0\nsamples = 1\nvalue = [0, 1]"] ;
182 -> 183 ;
184 [label="Fare <= 0.014\ngini = 0.266\nsamples = 19\nvalue = [16, 3]"] ;
182 -> 184 ;
185 [label="gini = 0.219\nsamples = 8\nvalue = [7, 1]"] ;
184 -> 185 ;
186 [label="gini = 0.298\nsamples = 11\nvalue = [9, 2]"] ;
184 -> 186 ;
187 [label="Fare <= 0.015\ngini = 0.114\nsamples = 33\nvalue = [31, 2]"] ;
171 -> 187 ;
188 [label="gini = 0.0\nsamples = 21\nvalue = [21, 0]"] ;
187 -> 188 ;
189 [label="IsAlone <= 0.5\ngini = 0.278\nsamples = 12\nvalue = [10, 2]"] ;
187 -> 189 ;
190 [label="gini = 0.0\nsamples = 1\nvalue = [1, 0]"] ;
189 -> 190 ;
191 [label="Deck <= 0.125\ngini = 0.298\nsamples = 11\nvalue = [9, 2]"] ;
189 -> 191 ;
192 [label="gini = 0.32\nsamples = 10\nvalue = [8, 2]"] ;
191 -> 192 ;
193 [label="gini = 0.0\nsamples = 1\nvalue = [1, 0]"] ;
191 -> 193 ;
194 [label="IsAlone <= 0.5\ngini = 0.444\nsamples = 12\nvalue = [8, 4]"] ;
170 -> 194 ;
195 [label="gini = 0.5\nsamples = 2\nvalue = [1, 1]"] ;
194 -> 195 ;
196 [label="Fare <= 0.015\ngini = 0.42\nsamples = 10\nvalue = [7, 3]"] ;
194 -> 196 ;
197 [label="gini = 0.32\nsamples = 5\nvalue = [4, 1]"] ;
196 -> 197 ;
198 [label="gini = 0.48\nsamples = 5\nvalue = [3, 2]"] ;
196 -> 198 ;
199 [label="Embarked_S <= 0.5\ngini = 0.053\nsamples = 37\nvalue = [36, 1]"] ;
169 -> 199 ;
200 [label="Fare <= 0.015\ngini = 0.375\nsamples = 4\nvalue = [3, 1]"] ;
199 -> 200 ;
201 [label="gini = 0.0\nsamples = 1\nvalue = [1, 0]"] ;
200 -> 201 ;
202 [label="gini = 0.444\nsamples = 3\nvalue = [2, 1]"] ;
200 -> 202 ;
203 [label="gini = 0.0\nsamples = 33\nvalue = [33, 0]"] ;
199 -> 203 ;
204 [label="Fare <= 0.016\ngini = 0.225\nsamples = 139\nvalue = [121, 18]"] ;
160 -> 204 ;
205 [label="AgeGroup_2.0 <= 0.5\ngini = 0.473\nsamples = 13\nvalue = [8, 5]"] ;
204 -> 205 ;
206 [label="IsAlone <= 0.5\ngini = 0.32\nsamples = 5\nvalue = [4, 1]"] ;
205 -> 206 ;
207 [label="gini = 0.5\nsamples = 2\nvalue = [1, 1]"] ;
206 -> 207 ;
208 [label="gini = 0.0\nsamples = 3\nvalue = [3, 0]"] ;
206 -> 208 ;
209 [label="IsAlone <= 0.5\ngini = 0.5\nsamples = 8\nvalue = [4, 4]"] ;
205 -> 209 ;
210 [label="gini = 0.0\nsamples = 1\nvalue = [1, 0]"] ;
209 -> 210 ;
211 [label="gini = 0.49\nsamples = 7\nvalue = [3, 4]"] ;
209 -> 211 ;
212 [label="AgeGroup_1.0 <= 0.5\ngini = 0.185\nsamples = 126\nvalue = [113, 13]"] ;
204 -> 212 ;
213 [label="Fare <= 0.016\ngini = 0.231\nsamples = 60\nvalue = [52, 8]"] ;
212 -> 213 ;
214 [label="AgeGroup_2.0 <= 0.5\ngini = 0.36\nsamples = 17\nvalue = [13, 4]"] ;
213 -> 214 ;
215 [label="AgeGroup_3.0 <= 0.5\ngini = 0.469\nsamples = 8\nvalue = [5, 3]"] ;
214 -> 215 ;
216 [label="gini = 0.48\nsamples = 5\nvalue = [2, 3]"] ;
215 -> 216 ;
217 [label="gini = 0.0\nsamples = 3\nvalue = [3, 0]"] ;
215 -> 217 ;
218 [label="gini = 0.198\nsamples = 9\nvalue = [8, 1]"] ;
214 -> 218 ;
219 [label="Fare <= 0.02\ngini = 0.169\nsamples = 43\nvalue = [39, 4]"] ;
213 -> 219 ;
220 [label="gini = 0.0\nsamples = 16\nvalue = [16, 0]"] ;
219 -> 220 ;
221 [label="AgeGroup_4.0 <= 0.5\ngini = 0.252\nsamples = 27\nvalue = [23, 4]"] ;
219 -> 221 ;
222 [label="Fare <= 0.021\ngini = 0.269\nsamples = 25\nvalue = [21, 4]"] ;
221 -> 222 ;
223 [label="AgeGroup_3.0 <= 0.5\ngini = 0.375\nsamples = 8\nvalue = [6, 2]"] ;
222 -> 223 ;
224 [label="AgeGroup_2.0 <= 0.5\ngini = 0.245\nsamples = 7\nvalue = [6, 1]"] ;
223 -> 224 ;
225 [label="gini = 0.444\nsamples = 3\nvalue = [2, 1]"] ;
224 -> 225 ;
226 [label="gini = 0.0\nsamples = 4\nvalue = [4, 0]"] ;
224 -> 226 ;
227 [label="gini = 0.0\nsamples = 1\nvalue = [0, 1]"] ;
223 -> 227 ;
228 [label="AgeGroup_2.0 <= 0.5\ngini = 0.208\nsamples = 17\nvalue = [15, 2]"] ;
222 -> 228 ;
229 [label="gini = 0.0\nsamples = 9\nvalue = [9, 0]"] ;
228 -> 229 ;
230 [label="Fare <= 0.025\ngini = 0.375\nsamples = 8\nvalue = [6, 2]"] ;
228 -> 230 ;
231 [label="gini = 0.0\nsamples = 1\nvalue = [1, 0]"] ;
230 -> 231 ;
232 [label="gini = 0.408\nsamples = 7\nvalue = [5, 2]"] ;
230 -> 232 ;
233 [label="gini = 0.0\nsamples = 2\nvalue = [2, 0]"] ;
221 -> 233 ;
234 [label="Fare <= 0.016\ngini = 0.14\nsamples = 66\nvalue = [61, 5]"] ;
212 -> 234 ;
235 [label="gini = 0.0\nsamples = 23\nvalue = [23, 0]"] ;
234 -> 235 ;
236 [label="Fare <= 0.016\ngini = 0.206\nsamples = 43\nvalue = [38, 5]"] ;
234 -> 236 ;
237 [label="gini = 0.0\nsamples = 1\nvalue = [0, 1]"] ;
236 -> 237 ;
238 [label="Fare <= 0.019\ngini = 0.172\nsamples = 42\nvalue = [38, 4]"] ;
236 -> 238 ;
239 [label="Fare <= 0.019\ngini = 0.255\nsamples = 20\nvalue = [17, 3]"] ;
238 -> 239 ;
240 [label="Fare <= 0.017\ngini = 0.142\nsamples = 13\nvalue = [12, 1]"] ;
239 -> 240 ;
241 [label="Fare <= 0.017\ngini = 0.245\nsamples = 7\nvalue = [6, 1]"] ;
240 -> 241 ;
242 [label="gini = 0.0\nsamples = 2\nvalue = [2, 0]"] ;
241 -> 242 ;
243 [label="IsAlone <= 0.5\ngini = 0.32\nsamples = 5\nvalue = [4, 1]"] ;
241 -> 243 ;
244 [label="gini = 0.0\nsamples = 1\nvalue = [1, 0]"] ;
243 -> 244 ;
245 [label="gini = 0.375\nsamples = 4\nvalue = [3, 1]"] ;
243 -> 245 ;
246 [label="gini = 0.0\nsamples = 6\nvalue = [6, 0]"] ;
240 -> 246 ;
247 [label="gini = 0.408\nsamples = 7\nvalue = [5, 2]"] ;
239 -> 247 ;
248 [label="Fare <= 0.024\ngini = 0.087\nsamples = 22\nvalue = [21, 1]"] ;
238 -> 248 ;
249 [label="gini = 0.0\nsamples = 8\nvalue = [8, 0]"] ;
248 -> 249 ;
250 [label="Fare <= 0.026\ngini = 0.133\nsamples = 14\nvalue = [13, 1]"] ;
248 -> 250 ;
251 [label="gini = 0.142\nsamples = 13\nvalue = [12, 1]"] ;
250 -> 251 ;
252 [label="gini = 0.0\nsamples = 1\nvalue = [1, 0]"] ;
250 -> 252 ;
253 [label="gini = 0.0\nsamples = 1\nvalue = [0, 1]"] ;
159 -> 253 ;
254 [label="Embarked_S <= 0.5\ngini = 0.114\nsamples = 66\nvalue = [62, 4]"] ;
158 -> 254 ;
255 [label="Fare <= 0.03\ngini = 0.291\nsamples = 17\nvalue = [14, 3]"] ;
254 -> 255 ;
256 [label="gini = 0.0\nsamples = 9\nvalue = [9, 0]"] ;
255 -> 256 ;
257 [label="Fare <= 0.046\ngini = 0.469\nsamples = 8\nvalue = [5, 3]"] ;
255 -> 257 ;
258 [label="AgeGroup_1.0 <= 0.5\ngini = 0.48\nsamples = 5\nvalue = [2, 3]"] ;
257 -> 258 ;
259 [label="gini = 0.0\nsamples = 1\nvalue = [1, 0]"] ;
258 -> 259 ;
260 [label="Fare <= 0.039\ngini = 0.375\nsamples = 4\nvalue = [1, 3]"] ;
258 -> 260 ;
261 [label="gini = 0.0\nsamples = 2\nvalue = [0, 2]"] ;
260 -> 261 ;
262 [label="Embarked_Q <= 0.5\ngini = 0.5\nsamples = 2\nvalue = [1, 1]"] ;
260 -> 262 ;
263 [label="gini = 0.0\nsamples = 1\nvalue = [1, 0]"] ;
262 -> 263 ;
264 [label="gini = 0.0\nsamples = 1\nvalue = [0, 1]"] ;
262 -> 264 ;
265 [label="gini = 0.0\nsamples = 3\nvalue = [3, 0]"] ;
257 -> 265 ;
266 [label="Fare <= 0.051\ngini = 0.04\nsamples = 49\nvalue = [48, 1]"] ;
254 -> 266 ;
267 [label="gini = 0.0\nsamples = 34\nvalue = [34, 0]"] ;
266 -> 267 ;
268 [label="IsAlone <= 0.5\ngini = 0.124\nsamples = 15\nvalue = [14, 1]"] ;
266 -> 268 ;
269 [label="Fare <= 0.051\ngini = 0.219\nsamples = 8\nvalue = [7, 1]"] ;
268 -> 269 ;
270 [label="AgeGroup_2.0 <= 0.5\ngini = 0.278\nsamples = 6\nvalue = [5, 1]"] ;
269 -> 270 ;
271 [label="gini = 0.0\nsamples = 1\nvalue = [1, 0]"] ;
270 -> 271 ;
272 [label="Deck <= 0.125\ngini = 0.32\nsamples = 5\nvalue = [4, 1]"] ;
270 -> 272 ;
273 [label="gini = 0.375\nsamples = 4\nvalue = [3, 1]"] ;
272 -> 273 ;
274 [label="gini = 0.0\nsamples = 1\nvalue = [1, 0]"] ;
272 -> 274 ;
275 [label="gini = 0.0\nsamples = 2\nvalue = [2, 0]"] ;
269 -> 275 ;
276 [label="gini = 0.0\nsamples = 7\nvalue = [7, 0]"] ;
268 -> 276 ;
277 [label="IsAlone <= 0.5\ngini = 0.325\nsamples = 49\nvalue = [39, 10]"] ;
157 -> 277 ;
278 [label="gini = 0.0\nsamples = 23\nvalue = [23, 0]"] ;
277 -> 278 ;
279 [label="Pclass <= 0.75\ngini = 0.473\nsamples = 26\nvalue = [16, 10]"] ;
277 -> 279 ;
280 [label="Fare <= 0.053\ngini = 0.388\nsamples = 19\nvalue = [14, 5]"] ;
279 -> 280 ;
281 [label="AgeGroup_2.0 <= 0.5\ngini = 0.444\nsamples = 6\nvalue = [2, 4]"] ;
280 -> 281 ;
282 [label="gini = 0.0\nsamples = 2\nvalue = [2, 0]"] ;
281 -> 282 ;
283 [label="gini = 0.0\nsamples = 4\nvalue = [0, 4]"] ;
281 -> 283 ;
284 [label="Fare <= 0.06\ngini = 0.142\nsamples = 13\nvalue = [12, 1]"] ;
280 -> 284 ;
285 [label="Fare <= 0.057\ngini = 0.375\nsamples = 4\nvalue = [3, 1]"] ;
284 -> 285 ;
286 [label="gini = 0.0\nsamples = 3\nvalue = [3, 0]"] ;
285 -> 286 ;
287 [label="gini = 0.0\nsamples = 1\nvalue = [0, 1]"] ;
285 -> 287 ;
288 [label="gini = 0.0\nsamples = 9\nvalue = [9, 0]"] ;
284 -> 288 ;
289 [label="AgeGroup_2.0 <= 0.5\ngini = 0.408\nsamples = 7\nvalue = [2, 5]"] ;
279 -> 289 ;
290 [label="gini = 0.48\nsamples = 5\nvalue = [2, 3]"] ;
289 -> 290 ;
291 [label="gini = 0.0\nsamples = 2\nvalue = [0, 2]"] ;
289 -> 291 ;
292 [label="Fare <= 0.757\ngini = 0.477\nsamples = 89\nvalue = [54, 35]"] ;
156 -> 292 ;
293 [label="Fare <= 0.267\ngini = 0.471\nsamples = 87\nvalue = [54, 33]"] ;
292 -> 293 ;
294 [label="AgeGroup_3.0 <= 0.5\ngini = 0.483\nsamples = 81\nvalue = [48, 33]"] ;
293 -> 294 ;
295 [label="Deck <= 0.562\ngini = 0.499\nsamples = 54\nvalue = [28, 26]"] ;
294 -> 295 ;
296 [label="AgeGroup_2.0 <= 0.5\ngini = 0.401\nsamples = 18\nvalue = [5, 13]"] ;
295 -> 296 ;
297 [label="Embarked_S <= 0.5\ngini = 0.5\nsamples = 8\nvalue = [4, 4]"] ;
296 -> 297 ;
298 [label="gini = 0.0\nsamples = 3\nvalue = [0, 3]"] ;
297 -> 298 ;
299 [label="Deck <= 0.438\ngini = 0.32\nsamples = 5\nvalue = [4, 1]"] ;
297 -> 299 ;
300 [label="IsAlone <= 0.5\ngini = 0.5\nsamples = 2\nvalue = [1, 1]"] ;
299 -> 300 ;
301 [label="gini = 0.0\nsamples = 1\nvalue = [0, 1]"] ;
300 -> 301 ;
302 [label="gini = 0.0\nsamples = 1\nvalue = [1, 0]"] ;
300 -> 302 ;
303 [label="gini = 0.0\nsamples = 3\nvalue = [3, 0]"] ;
299 -> 303 ;
304 [label="Embarked_S <= 0.5\ngini = 0.18\nsamples = 10\nvalue = [1, 9]"] ;
296 -> 304 ;
305 [label="gini = 0.0\nsamples = 1\nvalue = [1, 0]"] ;
304 -> 305 ;
306 [label="gini = 0.0\nsamples = 9\nvalue = [0, 9]"] ;
304 -> 306 ;
307 [label="Fare <= 0.169\ngini = 0.461\nsamples = 36\nvalue = [23, 13]"] ;
295 -> 307 ;
308 [label="Fare <= 0.074\ngini = 0.412\nsamples = 31\nvalue = [22, 9]"] ;
307 -> 308 ;
309 [label="Fare <= 0.056\ngini = 0.488\nsamples = 19\nvalue = [11, 8]"] ;
308 -> 309 ;
310 [label="AgeGroup_2.0 <= 0.5\ngini = 0.219\nsamples = 8\nvalue = [7, 1]"] ;
309 -> 310 ;
311 [label="Embarked_S <= 0.5\ngini = 0.5\nsamples = 2\nvalue = [1, 1]"] ;
310 -> 311 ;
312 [label="gini = 0.0\nsamples = 1\nvalue = [1, 0]"] ;
311 -> 312 ;
313 [label="gini = 0.0\nsamples = 1\nvalue = [0, 1]"] ;
311 -> 313 ;
314 [label="gini = 0.0\nsamples = 6\nvalue = [6, 0]"] ;
310 -> 314 ;
315 [label="Fare <= 0.064\ngini = 0.463\nsamples = 11\nvalue = [4, 7]"] ;
309 -> 315 ;
316 [label="IsAlone <= 0.5\ngini = 0.278\nsamples = 6\nvalue = [1, 5]"] ;
315 -> 316 ;
317 [label="gini = 0.0\nsamples = 1\nvalue = [1, 0]"] ;
316 -> 317 ;
318 [label="gini = 0.0\nsamples = 5\nvalue = [0, 5]"] ;
316 -> 318 ;
319 [label="Fare <= 0.069\ngini = 0.48\nsamples = 5\nvalue = [3, 2]"] ;
315 -> 319 ;
320 [label="gini = 0.0\nsamples = 2\nvalue = [2, 0]"] ;
319 -> 320 ;
321 [label="Deck <= 0.938\ngini = 0.444\nsamples = 3\nvalue = [1, 2]"] ;
319 -> 321 ;
322 [label="gini = 0.0\nsamples = 2\nvalue = [0, 2]"] ;
321 -> 322 ;
323 [label="gini = 0.0\nsamples = 1\nvalue = [1, 0]"] ;
321 -> 323 ;
324 [label="Fare <= 0.107\ngini = 0.153\nsamples = 12\nvalue = [11, 1]"] ;
308 -> 324 ;
325 [label="gini = 0.0\nsamples = 6\nvalue = [6, 0]"] ;
324 -> 325 ;
326 [label="Fare <= 0.116\ngini = 0.278\nsamples = 6\nvalue = [5, 1]"] ;
324 -> 326 ;
327 [label="gini = 0.0\nsamples = 1\nvalue = [0, 1]"] ;
326 -> 327 ;
328 [label="gini = 0.0\nsamples = 5\nvalue = [5, 0]"] ;
326 -> 328 ;
329 [label="Deck <= 0.688\ngini = 0.32\nsamples = 5\nvalue = [1, 4]"] ;
307 -> 329 ;
330 [label="Embarked_S <= 0.5\ngini = 0.444\nsamples = 3\nvalue = [1, 2]"] ;
329 -> 330 ;
331 [label="Fare <= 0.214\ngini = 0.5\nsamples = 2\nvalue = [1, 1]"] ;
330 -> 331 ;
332 [label="gini = 0.0\nsamples = 1\nvalue = [1, 0]"] ;
331 -> 332 ;
333 [label="gini = 0.0\nsamples = 1\nvalue = [0, 1]"] ;
331 -> 333 ;
334 [label="gini = 0.0\nsamples = 1\nvalue = [0, 1]"] ;
330 -> 334 ;
335 [label="gini = 0.0\nsamples = 2\nvalue = [0, 2]"] ;
329 -> 335 ;
336 [label="IsAlone <= 0.5\ngini = 0.384\nsamples = 27\nvalue = [20, 7]"] ;
294 -> 336 ;
337 [label="Deck <= 0.688\ngini = 0.486\nsamples = 12\nvalue = [7, 5]"] ;
336 -> 337 ;
338 [label="Fare <= 0.105\ngini = 0.42\nsamples = 10\nvalue = [7, 3]"] ;
337 -> 338 ;
339 [label="gini = 0.0\nsamples = 1\nvalue = [0, 1]"] ;
338 -> 339 ;
340 [label="Embarked_S <= 0.5\ngini = 0.346\nsamples = 9\nvalue = [7, 2]"] ;
338 -> 340 ;
341 [label="Fare <= 0.191\ngini = 0.48\nsamples = 5\nvalue = [3, 2]"] ;
340 -> 341 ;
342 [label="gini = 0.0\nsamples = 2\nvalue = [0, 2]"] ;
341 -> 342 ;
343 [label="gini = 0.0\nsamples = 3\nvalue = [3, 0]"] ;
341 -> 343 ;
344 [label="gini = 0.0\nsamples = 4\nvalue = [4, 0]"] ;
340 -> 344 ;
345 [label="gini = 0.0\nsamples = 2\nvalue = [0, 2]"] ;
337 -> 345 ;
346 [label="Fare <= 0.054\ngini = 0.231\nsamples = 15\nvalue = [13, 2]"] ;
336 -> 346 ;
347 [label="Deck <= 0.5\ngini = 0.5\nsamples = 4\nvalue = [2, 2]"] ;
346 -> 347 ;
348 [label="Fare <= 0.051\ngini = 0.444\nsamples = 3\nvalue = [1, 2]"] ;
347 -> 348 ;
349 [label="gini = 0.0\nsamples = 1\nvalue = [1, 0]"] ;
348 -> 349 ;
350 [label="gini = 0.0\nsamples = 2\nvalue = [0, 2]"] ;
348 -> 350 ;
351 [label="gini = 0.0\nsamples = 1\nvalue = [1, 0]"] ;
347 -> 351 ;
352 [label="gini = 0.0\nsamples = 11\nvalue = [11, 0]"] ;
346 -> 352 ;
353 [label="gini = 0.0\nsamples = 6\nvalue = [6, 0]"] ;
293 -> 353 ;
354 [label="gini = 0.0\nsamples = 2\nvalue = [0, 2]"] ;
292 -> 354 ;
}